{
  "H0": {
    "weights": [
      -0.01986667886376381,
      0.09292621165513992,
      -0.5212110280990601,
      -0.14579890668392181
    ],
    "bias": -0.2474956065416336
  },
  "H1": {
    "weights": [
      -0.43494364619255066,
      -1.7030940055847168,
      1.6474676132202148,
      2.758284091949463
    ],
    "bias": -2.2272908687591553
  },
  "H2": {
    "weights": [
      0.6163050532341003,
      1.9987109899520874,
      -1.9159119129180908,
      -2.1455564498901367
    ],
    "bias": 1.0949701070785522
  },
  "H3": {
    "weights": [
      -0.14498673379421234,
      0.07021806389093399,
      -0.1978277713060379,
      0.33683544397354126
    ],
    "bias": -0.23330090939998627
  },
  "H4": {
    "weights": [
      0.6152153015136719,
      0.5540770292282104,
      -0.25807708501815796,
      -1.6170164346694946
    ],
    "bias": 1.5057284832000732
  },
  "H5": {
    "weights": [
      -0.0143544040620327,
      -0.1100100725889206,
      -0.3990180194377899,
      0.23298922181129456
    ],
    "bias": 0.12435562908649445
  },
  "H6": {
    "weights": [
      -0.07982289791107178,
      0.2143128514289856,
      -0.24513131380081177,
      -0.42837297916412354
    ],
    "bias": -0.16707223653793335
  },
  "H7": {
    "weights": [
      -0.46670156717300415,
      0.2844356298446655,
      0.12585395574569702,
      -0.3891444206237793
    ],
    "bias": -0.14552748203277588
  },
  "O0": {
    "weights": [
      -0.2281879484653473,
      -1.1891776323318481,
      1.2982802391052246,
      -0.13053534924983978,
      -0.6965351700782776,
      0.18677902221679688,
      0.18502259254455566,
      -0.016085008159279823
    ],
    "bias": -1.1275537014007568
  },
  "O1": {
    "weights": [
      -0.0779351219534874,
      -1.5110430717468262,
      -1.515427589416504,
      0.08186918497085571,
      1.0756914615631104,
      0.14026036858558655,
      0.00377652607858181,
      -0.24289536476135254
    ],
    "bias": 0.6762632131576538
  },
  "O2": {
    "weights": [
      -0.11186927556991577,
      1.816128134727478,
      -2.144076108932495,
      0.016538383439183235,
      -1.1079157590866089,
      -0.036826241761446,
      -0.18512922525405884,
      -0.14929412305355072
    ],
    "bias": -1.4306446313858032
  }
}